digraph Tree {
node [shape=box] ;
0 [label="X[27] <= 0.5\ngini = 0.4992\nsamples = 5686\nvalue = [2956, 2730]"] ;
1 [label="X[21] <= 0.5\ngini = 0.2926\nsamples = 3214\nvalue = [572, 2642]"] ;
0 -> 1 [labeldistance=2.5, labelangle=45, headlabel="True"] ;
2 [label="gini = 0.0\nsamples = 2255\nvalue = [0, 2255]"] ;
1 -> 2 ;
3 [label="X[91] <= 0.5\ngini = 0.4814\nsamples = 959\nvalue = [572, 387]"] ;
1 -> 3 ;
4 [label="X[28] <= 0.5\ngini = 0.3577\nsamples = 746\nvalue = [572, 174]"] ;
3 -> 4 ;
5 [label="gini = 0.0\nsamples = 572\nvalue = [572, 0]"] ;
4 -> 5 ;
6 [label="gini = 0.0\nsamples = 174\nvalue = [0, 174]"] ;
4 -> 6 ;
7 [label="gini = 0.0\nsamples = 213\nvalue = [0, 213]"] ;
3 -> 7 ;
8 [label="X[95] <= 0.5\ngini = 0.0687\nsamples = 2472\nvalue = [2384, 88]"] ;
0 -> 8 [labeldistance=2.5, labelangle=-45, headlabel="False"] ;
9 [label="X[58] <= 0.5\ngini = 0.0277\nsamples = 2418\nvalue = [2384, 34]"] ;
8 -> 9 ;
10 [label="X[7] <= 0.5\ngini = 0.005\nsamples = 2378\nvalue = [2372, 6]"] ;
9 -> 10 ;
11 [label="X[1] <= 0.5\ngini = 0.0025\nsamples = 2375\nvalue = [2372, 3]"] ;
10 -> 11 ;
12 [label="X[35] <= 0.5\ngini = 0.0017\nsamples = 2374\nvalue = [2372, 2]"] ;
11 -> 12 ;
13 [label="X[21] <= 0.5\ngini = 0.0288\nsamples = 137\nvalue = [135, 2]"] ;
12 -> 13 ;
14 [label="gini = 0.0\nsamples = 135\nvalue = [135, 0]"] ;
13 -> 14 ;
15 [label="gini = 0.0\nsamples = 2\nvalue = [0, 2]"] ;
13 -> 15 ;
16 [label="gini = 0.0\nsamples = 2237\nvalue = [2237, 0]"] ;
12 -> 16 ;
17 [label="gini = 0.0\nsamples = 1\nvalue = [0, 1]"] ;
11 -> 17 ;
18 [label="gini = 0.0\nsamples = 3\nvalue = [0, 3]"] ;
10 -> 18 ;
19 [label="X[104] <= 0.5\ngini = 0.42\nsamples = 40\nvalue = [12, 28]"] ;
9 -> 19 ;
20 [label="gini = 0.0\nsamples = 28\nvalue = [0, 28]"] ;
19 -> 20 ;
21 [label="gini = 0.0\nsamples = 12\nvalue = [12, 0]"] ;
19 -> 21 ;
22 [label="gini = 0.0\nsamples = 54\nvalue = [0, 54]"] ;
8 -> 22 ;
}